digraph Tree {
node [shape=box, style="filled, rounded", color="black", fontname="helvetica"] ;
edge [fontname="helvetica"] ;
0 [label="petal length (cm) <= 2.6\ngini = 0.66\nsamples = 96\nvalue = [44, 45, 61]\nclass = virginica", fillcolor="#ece1fb"] ;
1 [label="gini = 0.0\nsamples = 31\nvalue = [44, 0, 0]\nclass = setosa", fillcolor="#e58139"] ;
0 -> 1 [labeldistance=2.5, labelangle=45, headlabel="True"] ;
2 [label="petal width (cm) <= 1.75\ngini = 0.49\nsamples = 65\nvalue = [0, 45, 61]\nclass = virginica", fillcolor="#decbf8"] ;
0 -> 2 [labeldistance=2.5, labelangle=-45, headlabel="False"] ;
3 [label="petal length (cm) <= 5.35\ngini = 0.12\nsamples = 33\nvalue = [0, 44, 3]\nclass = versicolor", fillcolor="#46e78a"] ;
2 -> 3 ;
4 [label="sepal length (cm) <= 5.05\ngini = 0.04\nsamples = 31\nvalue = [0, 44, 1]\nclass = versicolor", fillcolor="#3de684"] ;
3 -> 4 ;
5 [label="sepal width (cm) <= 2.45\ngini = 0.5\nsamples = 2\nvalue = [0, 1, 1]\nclass = versicolor", fillcolor="#ffffff"] ;
4 -> 5 ;
6 [label="gini = 0.0\nsamples = 1\nvalue = [0, 1, 0]\nclass = versicolor", fillcolor="#39e581"] ;
5 -> 6 ;
7 [label="gini = 0.0\nsamples = 1\nvalue = [0, 0, 1]\nclass = virginica", fillcolor="#8139e5"] ;
5 -> 7 ;
8 [label="gini = 0.0\nsamples = 29\nvalue = [0, 43, 0]\nclass = versicolor", fillcolor="#39e581"] ;
4 -> 8 ;
9 [label="gini = 0.0\nsamples = 2\nvalue = [0, 0, 2]\nclass = virginica", fillcolor="#8139e5"] ;
3 -> 9 ;
10 [label="sepal width (cm) <= 3.15\ngini = 0.03\nsamples = 32\nvalue = [0, 1, 58]\nclass = virginica", fillcolor="#833ce5"] ;
2 -> 10 ;
11 [label="gini = 0.0\nsamples = 24\nvalue = [0, 0, 47]\nclass = virginica", fillcolor="#8139e5"] ;
10 -> 11 ;
12 [label="petal length (cm) <= 5.05\ngini = 0.15\nsamples = 8\nvalue = [0, 1, 11]\nclass = virginica", fillcolor="#8c4be7"] ;
10 -> 12 ;
13 [label="gini = 0.0\nsamples = 1\nvalue = [0, 1, 0]\nclass = versicolor", fillcolor="#39e581"] ;
12 -> 13 ;
14 [label="gini = 0.0\nsamples = 7\nvalue = [0, 0, 11]\nclass = virginica", fillcolor="#8139e5"] ;
12 -> 14 ;
}