digraph Tree {
node [shape=box, style="filled, rounded", color="black", fontname="helvetica"] ;
edge [fontname="helvetica"] ;
0 [label="petal length (cm) <= 2.6\ngini = 0.67\nsamples = 93\nvalue = [53, 47, 50]\nclass = setosa", fillcolor="#fefbf9"] ;
1 [label="gini = 0.0\nsamples = 32\nvalue = [53, 0, 0]\nclass = setosa", fillcolor="#e58139"] ;
0 -> 1 [labeldistance=2.5, labelangle=45, headlabel="True"] ;
2 [label="sepal length (cm) <= 6.25\ngini = 0.5\nsamples = 61\nvalue = [0, 47, 50]\nclass = virginica", fillcolor="#f7f3fd"] ;
0 -> 2 [labeldistance=2.5, labelangle=-45, headlabel="False"] ;
3 [label="petal width (cm) <= 1.65\ngini = 0.43\nsamples = 32\nvalue = [0, 38, 17]\nclass = versicolor", fillcolor="#92f1b9"] ;
2 -> 3 ;
4 [label="petal length (cm) <= 5.35\ngini = 0.05\nsamples = 22\nvalue = [0, 37, 1]\nclass = versicolor", fillcolor="#3ee684"] ;
3 -> 4 ;
5 [label="gini = 0.0\nsamples = 21\nvalue = [0, 37, 0]\nclass = versicolor", fillcolor="#39e581"] ;
4 -> 5 ;
6 [label="gini = 0.0\nsamples = 1\nvalue = [0, 0, 1]\nclass = virginica", fillcolor="#8139e5"] ;
4 -> 6 ;
7 [label="petal length (cm) <= 4.85\ngini = 0.11\nsamples = 10\nvalue = [0, 1, 16]\nclass = virginica", fillcolor="#8945e7"] ;
3 -> 7 ;
8 [label="petal length (cm) <= 4.65\ngini = 0.44\nsamples = 3\nvalue = [0, 1, 2]\nclass = virginica", fillcolor="#c09cf2"] ;
7 -> 8 ;
9 [label="gini = 0.0\nsamples = 1\nvalue = [0, 0, 1]\nclass = virginica", fillcolor="#8139e5"] ;
8 -> 9 ;
10 [label="sepal length (cm) <= 5.95\ngini = 0.5\nsamples = 2\nvalue = [0, 1, 1]\nclass = versicolor", fillcolor="#ffffff"] ;
8 -> 10 ;
11 [label="gini = 0.0\nsamples = 1\nvalue = [0, 1, 0]\nclass = versicolor", fillcolor="#39e581"] ;
10 -> 11 ;
12 [label="gini = 0.0\nsamples = 1\nvalue = [0, 0, 1]\nclass = virginica", fillcolor="#8139e5"] ;
10 -> 12 ;
13 [label="gini = 0.0\nsamples = 7\nvalue = [0, 0, 14]\nclass = virginica", fillcolor="#8139e5"] ;
7 -> 13 ;
14 [label="petal width (cm) <= 1.75\ngini = 0.34\nsamples = 29\nvalue = [0, 9, 33]\nclass = virginica", fillcolor="#a36fec"] ;
2 -> 14 ;
15 [label="petal length (cm) <= 5.05\ngini = 0.43\nsamples = 8\nvalue = [0, 9, 4]\nclass = versicolor", fillcolor="#91f1b9"] ;
14 -> 15 ;
16 [label="gini = 0.0\nsamples = 7\nvalue = [0, 9, 0]\nclass = versicolor", fillcolor="#39e581"] ;
15 -> 16 ;
17 [label="gini = 0.0\nsamples = 1\nvalue = [0, 0, 4]\nclass = virginica", fillcolor="#8139e5"] ;
15 -> 17 ;
18 [label="gini = 0.0\nsamples = 21\nvalue = [0, 0, 29]\nclass = virginica", fillcolor="#8139e5"] ;
14 -> 18 ;
}