digraph Tree {
node [shape=box, style="filled, rounded", color="black", fontname="helvetica"] ;
edge [fontname="helvetica"] ;
0 [label="petal width (cm) <= 0.8\ngini = 0.66\nsamples = 93\nvalue = [58, 50, 42]\nclass = setosa", fillcolor="#fdf5ef"] ;
1 [label="gini = 0.0\nsamples = 36\nvalue = [58, 0, 0]\nclass = setosa", fillcolor="#e58139"] ;
0 -> 1 [labeldistance=2.5, labelangle=45, headlabel="True"] ;
2 [label="petal width (cm) <= 1.75\ngini = 0.5\nsamples = 57\nvalue = [0, 50, 42]\nclass = versicolor", fillcolor="#dffbeb"] ;
0 -> 2 [labeldistance=2.5, labelangle=-45, headlabel="False"] ;
3 [label="gini = 0.0\nsamples = 32\nvalue = [0, 50, 0]\nclass = versicolor", fillcolor="#39e581"] ;
2 -> 3 ;
4 [label="gini = 0.0\nsamples = 25\nvalue = [0, 0, 42]\nclass = virginica", fillcolor="#8139e5"] ;
2 -> 4 ;
}